<?xml version="1.0"?>
<opencv_storage>
<stage5>
  <maxWeakCount>7</maxWeakCount>
  <stageThreshold>-1.3003530502319336e+00</stageThreshold>
  <weakClassifiers>
    <_>
      <internalNodes>
        0 -1 2312 -457711257 -1001209852 1090519553 -178796286 808167491
        -977248158 -1476140857 -202376521</internalNodes>
      <leafValues>
        -7.4446678161621094e-01 4.4698545336723328e-01</leafValues></_>
    <_>
      <internalNodes>
        0 -1 2307 1342277306 1972736022 354418701 -1819475776
        -2139051590 -1098071910 -1979086401 -74634614</internalNodes>
      <leafValues>
        -6.0964012145996094e-01 5.5342864990234375e-01</leafValues></_>
    <_>
      <internalNodes>
        0 -1 1639 -1060900090 -724398074 -2139078417 -846392690
        1670506774 -268394366 -1987467198 -103838898</internalNodes>
      <leafValues>
        -7.3622310161590576e-01 4.9206706881523132e-01</leafValues></_>
    <_>
      <internalNodes>
        0 -1 1794 -792210545 -558005797 -251035616 -292054847 1376370971
        1922236675 -1736207787 1686627019</internalNodes>
      <leafValues>
        -7.4626135826110840e-01 4.3976479768753052e-01</leafValues></_>
    <_>
      <internalNodes>
        0 -1 114 643059164 -1181576699 -771711971 -2007760425 134384891
        -1962219391 -1073612737 -1144508928</internalNodes>
      <leafValues>
        -7.2327625751495361e-01 4.9357128143310547e-01</leafValues></_>
    <_>
      <internalNodes>
        0 -1 3011 -602404744 -582991867 335681949 -575567870 -2139090896
        -1434451798 1073994252 -122865436</internalNodes>
      <leafValues>
        -7.9266721010208130e-01 4.7166526317596436e-01</leafValues></_>
    <_>
      <internalNodes>
        0 -1 2493 -754211691 -1802501629 -985586424 -2126896885
        -2113269599 -656867167 -2130051060 -1084352889</internalNodes>
      <leafValues>
        -6.4571970701217651e-01 6.0182315111160278e-01</leafValues></_></weakClassifiers></stage5>
</opencv_storage>
