<?xml version="1.0"?>
<opencv_storage>
<stage6>
  <maxWeakCount>8</maxWeakCount>
  <stageThreshold>-9.4631499052047729e-01</stageThreshold>
  <weakClassifiers>
    <_>
      <internalNodes>
        0 -1 3645 -996410810 1083230208 1124173897 -921729022 1375905831
        545439810 -1064711932 -742399441</internalNodes>
      <leafValues>
        -8.0984342098236084e-01 3.4251290559768677e-01</leafValues></_>
    <_>
      <internalNodes>
        0 -1 2547 -946932739 -40136622 -1073704558 -2113877888 277874714
        -1199504758 -528262501 -936474673</internalNodes>
      <leafValues>
        -7.4808758497238159e-01 4.7367766499519348e-01</leafValues></_>
    <_>
      <internalNodes>
        0 -1 3624 -651443797 -770637559 1880228106 -896085558
        -1450464773 683835586 -391255949 -727716917</internalNodes>
      <leafValues>
        -7.0404428243637085e-01 5.3708380460739136e-01</leafValues></_>
    <_>
      <internalNodes>
        0 -1 3524 -556536409 -2137845491 159436996 -862600954 -800916891
        -628719616 -811343758 -191395209</internalNodes>
      <leafValues>
        -7.1972286701202393e-01 5.3927439451217651e-01</leafValues></_>
    <_>
      <internalNodes>
        0 -1 769 -1039083069 -996536304 -1827422208 -870957046
        -2013228541 1686274050 -1148049296 -460650462</internalNodes>
      <leafValues>
        -8.6535114049911499e-01 4.8050549626350403e-01</leafValues></_>
    <_>
      <internalNodes>
        0 -1 1305 -918169612 -796548915 65794 -519880689 1073825921
        -802062272 -796295142 -1106271317</internalNodes>
      <leafValues>
        -6.7292499542236328e-01 6.2011134624481201e-01</leafValues></_>
    <_>
      <internalNodes>
        0 -1 2196 1124110771 1363263521 -2013200363 687865858 33620936
        -1331691506 -1609987953 -1903541622</internalNodes>
      <leafValues>
        -6.6032731533050537e-01 6.5698516368865967e-01</leafValues></_>
    <_>
      <internalNodes>
        0 -1 2323 -201657953 -1072592878 -1073676286 -391314944
        1082233130 -2128508800 -802977536 -137002459</internalNodes>
      <leafValues>
        -7.7912890911102295e-01 5.1209604740142822e-01</leafValues></_></weakClassifiers></stage6>
</opencv_storage>
