<?xml version="1.0"?>
<opencv_storage>
<stage3>
  <maxWeakCount>6</maxWeakCount>
  <stageThreshold>-6.5210455656051636e-01</stageThreshold>
  <weakClassifiers>
    <_>
      <internalNodes>
        0 -1 716 457454749 -585786985 -712963921 -79310479 -1431053831
        -74907479 -837220339 -16967028</internalNodes>
      <leafValues>
        -7.5303643941879272e-01 4.4969198107719421e-01</leafValues></_>
    <_>
      <internalNodes>
        0 -1 3526 -845940737 -1004595813 -804661370 -866560438
        -315492313 -578584434 -125265852 -84149425</internalNodes>
      <leafValues>
        -7.3167729377746582e-01 5.1075667142868042e-01</leafValues></_>
    <_>
      <internalNodes>
        0 -1 3104 -469118465 1373487452 -720398951 -1118316273
        -938745415 -1953791861 1493818367 225831515</internalNodes>
      <leafValues>
        -6.5421831607818604e-01 5.9973776340484619e-01</leafValues></_>
    <_>
      <internalNodes>
        0 -1 733 1616107479 -1034838463 1359757659 -431171716 268613939
        -252405502 -1171740556 -622864058</internalNodes>
      <leafValues>
        -7.7838313579559326e-01 5.1284188032150269e-01</leafValues></_>
    <_>
      <internalNodes>
        0 -1 551 -1257172099 -780072941 1477499277 -715316851 -666127149
        -92209024 -1031090160 -1078056184</internalNodes>
      <leafValues>
        -6.1484616994857788e-01 6.3824355602264404e-01</leafValues></_>
    <_>
      <internalNodes>
        0 -1 3715 43255792 -75382439 285495767 -1357119037 -1988097116
        -341081984 -2128901976 -1893201236</internalNodes>
      <leafValues>
        -8.1819528341293335e-01 4.6651342511177063e-01</leafValues></_></weakClassifiers></stage3>
</opencv_storage>
