<?xml version="1.0"?>
<opencv_storage>
<stage4>
  <maxWeakCount>8</maxWeakCount>
  <stageThreshold>-7.4698817729949951e-01</stageThreshold>
  <weakClassifiers>
    <_>
      <internalNodes>
        0 -1 3329 -169872929 -389611256 -1996144372 1972750731
        -1023364222 -192147328 -1492915297 -540283921</internalNodes>
      <leafValues>
        -6.9657725095748901e-01 5.7868021726608276e-01</leafValues></_>
    <_>
      <internalNodes>
        0 -1 2919 948985213 -753811291 1359577495 -1245474783
        -1274418709 -120995453 -1031701573 703872804</internalNodes>
      <leafValues>
        -8.8652861118316650e-01 3.7484756112098694e-01</leafValues></_>
    <_>
      <internalNodes>
        0 -1 3619 -116919841 -259833845 -1056948214 -803323441
        -1148230759 -268320557 -676903807 -173949985</internalNodes>
      <leafValues>
        -6.6366815567016602e-01 6.1086481809616089e-01</leafValues></_>
    <_>
      <internalNodes>
        0 -1 3768 32546800 -3105357 1359071623 -1588452983 -1261754117
        -53771863 -1576301893 -1165481536</internalNodes>
      <leafValues>
        -7.6254397630691528e-01 5.2132040262222290e-01</leafValues></_>
    <_>
      <internalNodes>
        0 -1 2182 -783996698 -678322808 1090584896 -11173824 -788493589
        -562003837 -645223778 -123633478</internalNodes>
      <leafValues>
        -7.1869337558746338e-01 5.6963181495666504e-01</leafValues></_>
    <_>
      <internalNodes>
        0 -1 1082 -154062833 391135249 1209323798 -1421028073 -381646597
        -611802996 -620660692 -1075778796</internalNodes>
      <leafValues>
        -7.1662521362304688e-01 5.2642965316772461e-01</leafValues></_>
    <_>
      <internalNodes>
        0 -1 3414 -975579137 -514522967 -2147461085 -1059626991
        -2013118357 -1547124087 -1580299229 -941102589</internalNodes>
      <leafValues>
        -6.4815777540206909e-01 6.2537193298339844e-01</leafValues></_>
    <_>
      <internalNodes>
        0 -1 3939 361763157 -247211583 -805306048 -1123876850 1627404479
        -1140293559 -527849331 -1416066263</internalNodes>
      <leafValues>
        -7.0844036340713501e-01 5.6684213876724243e-01</leafValues></_></weakClassifiers></stage4>
</opencv_storage>
