<?xml version="1.0"?>
<opencv_storage>
<stage2>
  <maxWeakCount>6</maxWeakCount>
  <stageThreshold>-8.2129275798797607e-01</stageThreshold>
  <weakClassifiers>
    <_>
      <internalNodes>
        0 -1 3519 -520618169 -501513385 1142014415 -540293686 -830147743
        -930369343 -935857617 -17834325</internalNodes>
      <leafValues>
        -7.2744721174240112e-01 5.3810626268386841e-01</leafValues></_>
    <_>
      <internalNodes>
        0 -1 1795 -202384390 -1471631019 463210 -502611778 -179179279
        -803176053 -1475745055 -168428673</internalNodes>
      <leafValues>
        -7.6529556512832642e-01 4.7527015209197998e-01</leafValues></_>
    <_>
      <internalNodes>
        0 -1 3492 -409207313 -421543141 -804974294 -833957482 -367277293
        2043644041 -24491264 -171978762</internalNodes>
      <leafValues>
        -8.5171258449554443e-01 4.6890980005264282e-01</leafValues></_>
    <_>
      <internalNodes>
        0 -1 3003 960765949 -1242181609 -1270771249 -1073917817
        -401749267 -586592085 -1417033237 -1073973271</internalNodes>
      <leafValues>
        -7.4171209335327148e-01 5.5029487609863281e-01</leafValues></_>
    <_>
      <internalNodes>
        0 -1 1950 -254354074 -23173120 -1056943734 -871672766 1914749250
        541065216 -2136880145 -170396689</internalNodes>
      <leafValues>
        -7.5628066062927246e-01 5.8119696378707886e-01</leafValues></_>
    <_>
      <internalNodes>
        0 -1 1062 391216127 2130593797 2212255 -811823021 -662569489
        -74872791 -410446965 916996005</internalNodes>
      <leafValues>
        -8.0558615922927856e-01 5.1941072940826416e-01</leafValues></_></weakClassifiers></stage2>
</opencv_storage>
