<?xml version="1.0"?>
<opencv_storage>
<cascade>
  <stageType>BOOST</stageType>
  <featureType>LBP</featureType>
  <height>20</height>
  <width>20</width>
  <stageParams>
    <boostType>GAB</boostType>
    <minHitRate>9.9900001287460327e-01</minHitRate>
    <maxFalseAlarm>2.0000000298023224e-01</maxFalseAlarm>
    <weightTrimRate>9.4999998807907104e-01</weightTrimRate>
    <maxDepth>1</maxDepth>
    <maxWeakCount>100</maxWeakCount></stageParams>
  <featureParams>
    <maxCatCount>256</maxCatCount>
    <featSize>1</featSize></featureParams>
  <stageNum>9</stageNum>
  <stages>
    <!-- stage 0 -->
    <_>
      <maxWeakCount>4</maxWeakCount>
      <stageThreshold>-6.1055797338485718e-01</stageThreshold>
      <weakClassifiers>
        <_>
          <internalNodes>
            0 -1 26 823408125 -570617633 -780021569 -7513249 -238425861
            -14663286 -372577281 -1410548840</internalNodes>
          <leafValues>
            -8.4955751895904541e-01 4.2556917667388916e-01</leafValues></_>
        <_>
          <internalNodes>
            0 -1 46 227807231 -36240897 -251416193 -1342832308 180488379
            -58097527 -1165116532 -1884644662</internalNodes>
          <leafValues>
            -7.4673295021057129e-01 5.8252507448196411e-01</leafValues></_>
        <_>
          <internalNodes>
            0 -1 6 919606077 -1747332807 621135453 -1684153963
            -662586209 -360150629 -343032897 -302224452</internalNodes>
          <leafValues>
            -7.9071158170700073e-01 5.9480142593383789e-01</leafValues></_>
        <_>
          <internalNodes>
            0 -1 31 -53153290 -251886631 1431389087 -364657269
            -234839822 -1065054064 -1623093341 -85998622</internalNodes>
          <leafValues>
            -8.2794070243835449e-01 5.7331967353820801e-01</leafValues></_></weakClassifiers></_>
    <!-- stage 1 -->
    <_>
      <maxWeakCount>4</maxWeakCount>
      <stageThreshold>-5.2542215585708618e-01</stageThreshold>
      <weakClassifiers>
        <_>
          <internalNodes>
            0 -1 24 395130045 -547536482 -1719074753 -14744615
            -343691041 -1148682088 -1995822593 -24369000</internalNodes>
          <leafValues>
            -7.4324321746826172e-01 5.5808657407760620e-01</leafValues></_>
        <_>
          <internalNodes>
            0 -1 40 -562036753 -120405873 1342291978 -121203134
            -762519535 -196509565 -1035779808 -235537953</internalNodes>
          <leafValues>
            -7.4376565217971802e-01 5.4853338003158569e-01</leafValues></_>
        <_>
          <internalNodes>
            0 -1 48 336871381 995873111 -1790471969 -3221427 -1735865605
            -377238806 -276038657 -1342424272</internalNodes>
          <leafValues>
            -8.0545836687088013e-01 5.2578437328338623e-01</leafValues></_>
        <_>
          <internalNodes>
            0 -1 16 -723520515 -321858404 287490220 -28523838 -945646459
            -511426430 -1683207867 -102367785</internalNodes>
          <leafValues>
            -8.2658368349075317e-01 5.3021425008773804e-01</leafValues></_></weakClassifiers></_>
    <!-- stage 2 -->
    <_>
      <maxWeakCount>6</maxWeakCount>
      <stageThreshold>-8.2129275798797607e-01</stageThreshold>
      <weakClassifiers>
        <_>
          <internalNodes>
            0 -1 37 -520618169 -501513385 1142014415 -540293686
            -830147743 -930369343 -935857617 -17834325</internalNodes>
          <leafValues>
            -7.2744721174240112e-01 5.3810626268386841e-01</leafValues></_>
        <_>
          <internalNodes>
            0 -1 12 -202384390 -1471631019 463210 -502611778 -179179279
            -803176053 -1475745055 -168428673</internalNodes>
          <leafValues>
            -7.6529556512832642e-01 4.7527015209197998e-01</leafValues></_>
        <_>
          <internalNodes>
            0 -1 36 -409207313 -421543141 -804974294 -833957482
            -367277293 2043644041 -24491264 -171978762</internalNodes>
          <leafValues>
            -8.5171258449554443e-01 4.6890980005264282e-01</leafValues></_>
        <_>
          <internalNodes>
            0 -1 27 960765949 -1242181609 -1270771249 -1073917817
            -401749267 -586592085 -1417033237 -1073973271</internalNodes>
          <leafValues>
            -7.4171209335327148e-01 5.5029487609863281e-01</leafValues></_>
        <_>
          <internalNodes>
            0 -1 13 -254354074 -23173120 -1056943734 -871672766
            1914749250 541065216 -2136880145 -170396689</internalNodes>
          <leafValues>
            -7.5628066062927246e-01 5.8119696378707886e-01</leafValues></_>
        <_>
          <internalNodes>
            0 -1 7 391216127 2130593797 2212255 -811823021 -662569489
            -74872791 -410446965 916996005</internalNodes>
          <leafValues>
            -8.0558615922927856e-01 5.1941072940826416e-01</leafValues></_></weakClassifiers></_>
    <!-- stage 3 -->
    <_>
      <maxWeakCount>6</maxWeakCount>
      <stageThreshold>-6.5210455656051636e-01</stageThreshold>
      <weakClassifiers>
        <_>
          <internalNodes>
            0 -1 3 457454749 -585786985 -712963921 -79310479 -1431053831
            -74907479 -837220339 -16967028</internalNodes>
          <leafValues>
            -7.5303643941879272e-01 4.4969198107719421e-01</leafValues></_>
        <_>
          <internalNodes>
            0 -1 39 -845940737 -1004595813 -804661370 -866560438
            -315492313 -578584434 -125265852 -84149425</internalNodes>
          <leafValues>
            -7.3167729377746582e-01 5.1075667142868042e-01</leafValues></_>
        <_>
          <internalNodes>
            0 -1 30 -469118465 1373487452 -720398951 -1118316273
            -938745415 -1953791861 1493818367 225831515</internalNodes>
          <leafValues>
            -6.5421831607818604e-01 5.9973776340484619e-01</leafValues></_>
        <_>
          <internalNodes>
            0 -1 4 1616107479 -1034838463 1359757659 -431171716
            268613939 -252405502 -1171740556 -622864058</internalNodes>
          <leafValues>
            -7.7838313579559326e-01 5.1284188032150269e-01</leafValues></_>
        <_>
          <internalNodes>
            0 -1 1 -1257172099 -780072941 1477499277 -715316851
            -666127149 -92209024 -1031090160 -1078056184</internalNodes>
          <leafValues>
            -6.1484616994857788e-01 6.3824355602264404e-01</leafValues></_>
        <_>
          <internalNodes>
            0 -1 45 43255792 -75382439 285495767 -1357119037 -1988097116
            -341081984 -2128901976 -1893201236</internalNodes>
          <leafValues>
            -8.1819528341293335e-01 4.6651342511177063e-01</leafValues></_></weakClassifiers></_>
    <!-- stage 4 -->
    <_>
      <maxWeakCount>8</maxWeakCount>
      <stageThreshold>-7.4698817729949951e-01</stageThreshold>
      <weakClassifiers>
        <_>
          <internalNodes>
            0 -1 33 -169872929 -389611256 -1996144372 1972750731
            -1023364222 -192147328 -1492915297 -540283921</internalNodes>
          <leafValues>
            -6.9657725095748901e-01 5.7868021726608276e-01</leafValues></_>
        <_>
          <internalNodes>
            0 -1 25 948985213 -753811291 1359577495 -1245474783
            -1274418709 -120995453 -1031701573 703872804</internalNodes>
          <leafValues>
            -8.8652861118316650e-01 3.7484756112098694e-01</leafValues></_>
        <_>
          <internalNodes>
            0 -1 42 -116919841 -259833845 -1056948214 -803323441
            -1148230759 -268320557 -676903807 -173949985</internalNodes>
          <leafValues>
            -6.6366815567016602e-01 6.1086481809616089e-01</leafValues></_>
        <_>
          <internalNodes>
            0 -1 47 32546800 -3105357 1359071623 -1588452983 -1261754117
            -53771863 -1576301893 -1165481536</internalNodes>
          <leafValues>
            -7.6254397630691528e-01 5.2132040262222290e-01</leafValues></_>
        <_>
          <internalNodes>
            0 -1 14 -783996698 -678322808 1090584896 -11173824
            -788493589 -562003837 -645223778 -123633478</internalNodes>
          <leafValues>
            -7.1869337558746338e-01 5.6963181495666504e-01</leafValues></_>
        <_>
          <internalNodes>
            0 -1 8 -154062833 391135249 1209323798 -1421028073
            -381646597 -611802996 -620660692 -1075778796</internalNodes>
          <leafValues>
            -7.1662521362304688e-01 5.2642965316772461e-01</leafValues></_>
        <_>
          <internalNodes>
            0 -1 34 -975579137 -514522967 -2147461085 -1059626991
            -2013118357 -1547124087 -1580299229 -941102589</internalNodes>
          <leafValues>
            -6.4815777540206909e-01 6.2537193298339844e-01</leafValues></_>
        <_>
          <internalNodes>
            0 -1 49 361763157 -247211583 -805306048 -1123876850
            1627404479 -1140293559 -527849331 -1416066263</internalNodes>
          <leafValues>
            -7.0844036340713501e-01 5.6684213876724243e-01</leafValues></_></weakClassifiers></_>
    <!-- stage 5 -->
    <_>
      <maxWeakCount>7</maxWeakCount>
      <stageThreshold>-1.3003530502319336e+00</stageThreshold>
      <weakClassifiers>
        <_>
          <internalNodes>
            0 -1 20 -457711257 -1001209852 1090519553 -178796286
            808167491 -977248158 -1476140857 -202376521</internalNodes>
          <leafValues>
            -7.4446678161621094e-01 4.4698545336723328e-01</leafValues></_>
        <_>
          <internalNodes>
            0 -1 19 1342277306 1972736022 354418701 -1819475776
            -2139051590 -1098071910 -1979086401 -74634614</internalNodes>
          <leafValues>
            -6.0964012145996094e-01 5.5342864990234375e-01</leafValues></_>
        <_>
          <internalNodes>
            0 -1 10 -1060900090 -724398074 -2139078417 -846392690
            1670506774 -268394366 -1987467198 -103838898</internalNodes>
          <leafValues>
            -7.3622310161590576e-01 4.9206706881523132e-01</leafValues></_>
        <_>
          <internalNodes>
            0 -1 11 -792210545 -558005797 -251035616 -292054847
            1376370971 1922236675 -1736207787 1686627019</internalNodes>
          <leafValues>
            -7.4626135826110840e-01 4.3976479768753052e-01</leafValues></_>
        <_>
          <internalNodes>
            0 -1 0 643059164 -1181576699 -771711971 -2007760425
            134384891 -1962219391 -1073612737 -1144508928</internalNodes>
          <leafValues>
            -7.2327625751495361e-01 4.9357128143310547e-01</leafValues></_>
        <_>
          <internalNodes>
            0 -1 28 -602404744 -582991867 335681949 -575567870
            -2139090896 -1434451798 1073994252 -122865436</internalNodes>
          <leafValues>
            -7.9266721010208130e-01 4.7166526317596436e-01</leafValues></_>
        <_>
          <internalNodes>
            0 -1 22 -754211691 -1802501629 -985586424 -2126896885
            -2113269599 -656867167 -2130051060 -1084352889</internalNodes>
          <leafValues>
            -6.4571970701217651e-01 6.0182315111160278e-01</leafValues></_></weakClassifiers></_>
    <!-- stage 6 -->
    <_>
      <maxWeakCount>8</maxWeakCount>
      <stageThreshold>-9.4631499052047729e-01</stageThreshold>
      <weakClassifiers>
        <_>
          <internalNodes>
            0 -1 44 -996410810 1083230208 1124173897 -921729022
            1375905831 545439810 -1064711932 -742399441</internalNodes>
          <leafValues>
            -8.0984342098236084e-01 3.4251290559768677e-01</leafValues></_>
        <_>
          <internalNodes>
            0 -1 23 -946932739 -40136622 -1073704558 -2113877888
            277874714 -1199504758 -528262501 -936474673</internalNodes>
          <leafValues>
            -7.4808758497238159e-01 4.7367766499519348e-01</leafValues></_>
        <_>
          <internalNodes>
            0 -1 43 -651443797 -770637559 1880228106 -896085558
            -1450464773 683835586 -391255949 -727716917</internalNodes>
          <leafValues>
            -7.0404428243637085e-01 5.3708380460739136e-01</leafValues></_>
        <_>
          <internalNodes>
            0 -1 38 -556536409 -2137845491 159436996 -862600954
            -800916891 -628719616 -811343758 -191395209</internalNodes>
          <leafValues>
            -7.1972286701202393e-01 5.3927439451217651e-01</leafValues></_>
        <_>
          <internalNodes>
            0 -1 5 -1039083069 -996536304 -1827422208 -870957046
            -2013228541 1686274050 -1148049296 -460650462</internalNodes>
          <leafValues>
            -8.6535114049911499e-01 4.8050549626350403e-01</leafValues></_>
        <_>
          <internalNodes>
            0 -1 9 -918169612 -796548915 65794 -519880689 1073825921
            -802062272 -796295142 -1106271317</internalNodes>
          <leafValues>
            -6.7292499542236328e-01 6.2011134624481201e-01</leafValues></_>
        <_>
          <internalNodes>
            0 -1 15 1124110771 1363263521 -2013200363 687865858 33620936
            -1331691506 -1609987953 -1903541622</internalNodes>
          <leafValues>
            -6.6032731533050537e-01 6.5698516368865967e-01</leafValues></_>
        <_>
          <internalNodes>
            0 -1 21 -201657953 -1072592878 -1073676286 -391314944
            1082233130 -2128508800 -802977536 -137002459</internalNodes>
          <leafValues>
            -7.7912890911102295e-01 5.1209604740142822e-01</leafValues></_></weakClassifiers></_>
    <!-- stage 7 -->
    <_>
      <maxWeakCount>5</maxWeakCount>
      <stageThreshold>-8.4665429592132568e-01</stageThreshold>
      <weakClassifiers>
        <_>
          <internalNodes>
            0 -1 18 880766385 -231424465 -83887425 -1157644629
            2113877949 -1520521281 -50385861 1035414186</internalNodes>
          <leafValues>
            -7.1678322553634644e-01 8.9123868942260742e-01</leafValues></_>
        <_>
          <internalNodes>
            0 -1 17 67209234 268533777 16859155 -2130624508 524426
            150995456 -1610547058 -1031034678</internalNodes>
          <leafValues>
            -7.0365965366363525e-01 7.0288556814193726e-01</leafValues></_>
        <_>
          <internalNodes>
            0 -1 41 -1592687468 -805269248 67108865 1090519042 16810114
            -2105507832 269058440 -532250622</internalNodes>
          <leafValues>
            -7.7794742584228516e-01 6.4881974458694458e-01</leafValues></_>
        <_>
          <internalNodes>
            0 -1 32 -1342025684 403701760 268439557 -2130608128 71303323
            -2013265920 2156 145688712</internalNodes>
          <leafValues>
            -7.6703572273254395e-01 7.1043676137924194e-01</leafValues></_>
        <_>
          <internalNodes>
            0 -1 35 1073764433 268435457 1073741832 553975809 1073741832
            -1610612736 -1056947319 1753366538</internalNodes>
          <leafValues>
            -7.1454060077667236e-01 7.3783224821090698e-01</leafValues></_></weakClassifiers></_>
    <!-- stage 8 -->
    <_>
      <maxWeakCount>2</maxWeakCount>
      <stageThreshold>4.6875000000000000e-02</stageThreshold>
      <weakClassifiers>
        <_>
          <internalNodes>
            0 -1 2 -1073741824 1343225857 0 67109376 -2147483511 0 0 10</internalNodes>
          <leafValues>
            -9.5312500000000000e-01 1.</leafValues></_>
        <_>
          <internalNodes>
            0 -1 29 1048673 16777232 0 8388608 130 -2147483648 0
            671088641</internalNodes>
          <leafValues>
            -9.3179666996002197e-01 1.</leafValues></_></weakClassifiers></_></stages>
  <features>
    <_>
      <rect>
        0 3 2 2</rect></_>
    <_>
      <rect>
        1 5 2 1</rect></_>
    <_>
      <rect>
        1 7 2 1</rect></_>
    <_>
      <rect>
        1 13 2 1</rect></_>
    <_>
      <rect>
        1 14 4 2</rect></_>
    <_>
      <rect>
        2 0 3 2</rect></_>
    <_>
      <rect>
        2 6 1 1</rect></_>
    <_>
      <rect>
        2 11 1 1</rect></_>
    <_>
      <rect>
        2 12 2 1</rect></_>
    <_>
      <rect>
        3 6 2 3</rect></_>
    <_>
      <rect>
        4 7 2 2</rect></_>
    <_>
      <rect>
        5 1 1 1</rect></_>
    <_>
      <rect>
        5 1 1 2</rect></_>
    <_>
      <rect>
        5 7 1 2</rect></_>
    <_>
      <rect>
        6 4 3 2</rect></_>
    <_>
      <rect>
        6 5 2 1</rect></_>
    <_>
      <rect>
        6 8 1 2</rect></_>
    <_>
      <rect>
        6 11 3 2</rect></_>
    <_>
      <rect>
        6 11 4 2</rect></_>
    <_>
      <rect>
        6 13 3 1</rect></_>
    <_>
      <rect>
        6 14 1 2</rect></_>
    <_>
      <rect>
        6 16 1 1</rect></_>
    <_>
      <rect>
        7 7 4 3</rect></_>
    <_>
      <rect>
        7 12 1 1</rect></_>
    <_>
      <rect>
        8 13 2 1</rect></_>
    <_>
      <rect>
        9 5 1 1</rect></_>
    <_>
      <rect>
        9 6 1 1</rect></_>
    <_>
      <rect>
        9 13 1 1</rect></_>
    <_>
      <rect>
        9 14 2 1</rect></_>
    <_>
      <rect>
        10 2 1 1</rect></_>
    <_>
      <rect>
        10 4 3 2</rect></_>
    <_>
      <rect>
        10 6 3 3</rect></_>
    <_>
      <rect>
        10 13 2 1</rect></_>
    <_>
      <rect>
        11 7 2 2</rect></_>
    <_>
      <rect>
        12 1 1 1</rect></_>
    <_>
      <rect>
        12 7 1 1</rect></_>
    <_>
      <rect>
        12 9 1 1</rect></_>
    <_>
      <rect>
        12 14 1 2</rect></_>
    <_>
      <rect>
        12 16 1 1</rect></_>
    <_>
      <rect>
        12 17 1 1</rect></_>
    <_>
      <rect>
        13 1 1 2</rect></_>
    <_>
      <rect>
        13 4 2 3</rect></_>
    <_>
      <rect>
        13 9 1 2</rect></_>
    <_>
      <rect>
        13 10 1 1</rect></_>
    <_>
      <rect>
        13 14 1 2</rect></_>
    <_>
      <rect>
        14 5 2 1</rect></_>
    <_>
      <rect>
        14 12 2 1</rect></_>
    <_>
      <rect>
        14 13 2 1</rect></_>
    <_>
      <rect>
        16 6 1 1</rect></_>
    <_>
      <rect>
        17 6 1 1</rect></_></features></cascade>
</opencv_storage>
