<?xml version="1.0"?>
<opencv_storage>
<cascade>
  <stageType>BOOST</stageType>
  <featureType>LBP</featureType>
  <height>20</height>
  <width>20</width>
  <stageParams>
    <boostType>GAB</boostType>
    <minHitRate>9.9900001287460327e-01</minHitRate>
    <maxFalseAlarm>2.0000000298023224e-01</maxFalseAlarm>
    <weightTrimRate>9.4999998807907104e-01</weightTrimRate>
    <maxDepth>1</maxDepth>
    <maxWeakCount>100</maxWeakCount></stageParams>
  <featureParams>
    <maxCatCount>256</maxCatCount>
    <featSize>1</featSize></featureParams>
  <stageNum>5</stageNum>
  <stages>
    <!-- stage 0 -->
    <_>
      <maxWeakCount>5</maxWeakCount>
      <stageThreshold>-1.3380224704742432e+00</stageThreshold>
      <weakClassifiers>
        <_>
          <internalNodes>
            0 -1 7 1373475837 -174485369 587268555 -585791231 -536835653
            -138772295 -1416906613 -67262294</internalNodes>
          <leafValues>
            -8.2445138692855835e-01 7.7777779102325439e-01</leafValues></_>
        <_>
          <internalNodes>
            0 -1 10 -716133758 -237404135 -1995407092 -539385706
            311491519 -241074007 -377312625 -224034686</internalNodes>
          <leafValues>
            -8.9514005184173584e-01 5.8991134166717529e-01</leafValues></_>
        <_>
          <internalNodes>
            0 -1 19 -252314682 -800223232 1090699648 -1316765438
            1099121830 1342474242 -1022760702 -170920989</internalNodes>
          <leafValues>
            -8.1713247299194336e-01 7.1907579898834229e-01</leafValues></_>
        <_>
          <internalNodes>
            0 -1 4 -1067450620 -754739453 -1610317812 -309337789
            1089202933 -662073215 -2009018464 -2064651381</internalNodes>
          <leafValues>
            -8.6210179328918457e-01 6.2363564968109131e-01</leafValues></_>
        <_>
          <internalNodes>
            0 -1 6 -787218482 -119270127 -1995320946 -1076051562
            1342200269 1400930489 -83252578 2074970767</internalNodes>
          <leafValues>
            -9.3034636974334717e-01 5.7575184106826782e-01</leafValues></_></weakClassifiers></_>
    <!-- stage 1 -->
    <_>
      <maxWeakCount>5</maxWeakCount>
      <stageThreshold>-1.1701592206954956e+00</stageThreshold>
      <weakClassifiers>
        <_>
          <internalNodes>
            0 -1 3 -706087937 -195765485 16834855 -139222653 -956190525
            -2147474936 -1021589318 -1056081</internalNodes>
          <leafValues>
            -8.1454163789749146e-01 6.8924301862716675e-01</leafValues></_>
        <_>
          <internalNodes>
            0 -1 18 1086846311 -972832365 -2146784950 -1059872665
            1344006151 269320194 -878475258 -403178801</internalNodes>
          <leafValues>
            -8.1711655855178833e-01 5.9472686052322388e-01</leafValues></_>
        <_>
          <internalNodes>
            0 -1 1 -528363500 -645152617 1627721899 -170397501
            -1042028609 1535776907 -2109085204 -324011029</internalNodes>
          <leafValues>
            -7.8398883342742920e-01 6.2729132175445557e-01</leafValues></_>
        <_>
          <internalNodes>
            0 -1 15 -721355780 1595146259 345281807 -15915254 -100026113
            1763180554 -922178593 1875766071</internalNodes>
          <leafValues>
            -8.0402928590774536e-01 6.6029036045074463e-01</leafValues></_>
        <_>
          <internalNodes>
            0 -1 16 1090518820 -1072660335 -2143055622 -259291126
            -1002334861 -788299135 -905330666 1862269055</internalNodes>
          <leafValues>
            -8.9786821603775024e-01 5.8519744873046875e-01</leafValues></_></weakClassifiers></_>
    <!-- stage 2 -->
    <_>
      <maxWeakCount>4</maxWeakCount>
      <stageThreshold>-6.3498073816299438e-01</stageThreshold>
      <weakClassifiers>
        <_>
          <internalNodes>
            0 -1 11 -203423777 -560922341 -1861401470 -423833257
            -100426753 -4996966 -276058317 -136317009</internalNodes>
          <leafValues>
            -8.7602341175079346e-01 4.3188405036926270e-01</leafValues></_>
        <_>
          <internalNodes>
            0 -1 8 -146669602 -183332459 -1786719796 -580943585
            -578237957 -89497437 -626787649 1607597051</internalNodes>
          <leafValues>
            -8.4534674882888794e-01 5.5310529470443726e-01</leafValues></_>
        <_>
          <internalNodes>
            0 -1 2 611352533 -237977261 -719777473 -1951235847
            -599131253 -1851217 -612119553 -50533507</internalNodes>
          <leafValues>
            -8.1970810890197754e-01 6.0174512863159180e-01</leafValues></_>
        <_>
          <internalNodes>
            0 -1 21 -210256181 -61157013 -1073247650 -755318522
            -1465420551 -1337949957 -472966919 -436864065</internalNodes>
          <leafValues>
            -8.0026197433471680e-01 6.4514762163162231e-01</leafValues></_></weakClassifiers></_>
    <!-- stage 3 -->
    <_>
      <maxWeakCount>4</maxWeakCount>
      <stageThreshold>-5.4707384109497070e-01</stageThreshold>
      <weakClassifiers>
        <_>
          <internalNodes>
            0 -1 13 -773308419 -61595459 1430494687 -3294305 -937899521
            -556848903 -1379686145 -51058</internalNodes>
          <leafValues>
            -8.3555555343627930e-01 5.0666666030883789e-01</leafValues></_>
        <_>
          <internalNodes>
            0 -1 14 293371901 -573245889 -712962081 -71388743 -951526663
            -153240840 -662197509 -71544852</internalNodes>
          <leafValues>
            -8.4930807352066040e-01 5.3977560997009277e-01</leafValues></_>
        <_>
          <internalNodes>
            0 -1 12 1439965053 1024823344 1096114143 -1256877795
            -2013232901 -208009064 -1727455045 680595663</internalNodes>
          <leafValues>
            -7.9011887311935425e-01 6.4363265037536621e-01</leafValues></_>
        <_>
          <internalNodes>
            0 -1 20 -522277966 -148504551 1344344377 2142204674
            -392433165 1402660019 -72701505 -4756617</internalNodes>
          <leafValues>
            -8.0339729785919189e-01 6.4397495985031128e-01</leafValues></_></weakClassifiers></_>
    <!-- stage 4 -->
    <_>
      <maxWeakCount>4</maxWeakCount>
      <stageThreshold>-6.8735700845718384e-01</stageThreshold>
      <weakClassifiers>
        <_>
          <internalNodes>
            0 -1 5 -238031937 -216280673 -788447218 -889548670
            -2049590879 -2145091191 -1081875721 -134751249</internalNodes>
          <leafValues>
            -8.2875961065292358e-01 5.3633219003677368e-01</leafValues></_>
        <_>
          <internalNodes>
            0 -1 17 -540016657 -405409597 -1550745206 -426260093
            -788306633 1975160985 -244659339 -167974409</internalNodes>
          <leafValues>
            -8.8522654771804810e-01 4.2220914363861084e-01</leafValues></_>
        <_>
          <internalNodes>
            0 -1 9 -103297041 1222482965 -1123825650 -323108701
            -2000029257 -1867534329 -74450313 -134220865</internalNodes>
          <leafValues>
            -7.8928118944168091e-01 5.9243017435073853e-01</leafValues></_>
        <_>
          <internalNodes>
            0 -1 0 5518172 -657283681 -1861231107 -853834477 -492753665
            -763344469 -2000318545 -1075041628</internalNodes>
          <leafValues>
            -8.5661715269088745e-01 5.7748800516128540e-01</leafValues></_></weakClassifiers></_></stages>
  <features>
    <_>
      <rect>
        0 13 2 1</rect></_>
    <_>
      <rect>
        2 6 2 2</rect></_>
    <_>
      <rect>
        2 7 1 1</rect></_>
    <_>
      <rect>
        4 6 2 3</rect></_>
    <_>
      <rect>
        4 14 1 2</rect></_>
    <_>
      <rect>
        5 8 1 2</rect></_>
    <_>
      <rect>
        6 2 3 2</rect></_>
    <_>
      <rect>
        6 4 3 2</rect></_>
    <_>
      <rect>
        6 6 3 3</rect></_>
    <_>
      <rect>
        6 9 1 1</rect></_>
    <_>
      <rect>
        6 12 3 2</rect></_>
    <_>
      <rect>
        6 16 1 1</rect></_>
    <_>
      <rect>
        7 5 4 1</rect></_>
    <_>
      <rect>
        8 11 2 2</rect></_>
    <_>
      <rect>
        9 12 1 1</rect></_>
    <_>
      <rect>
        11 13 2 1</rect></_>
    <_>
      <rect>
        12 13 1 2</rect></_>
    <_>
      <rect>
        12 17 1 1</rect></_>
    <_>
      <rect>
        13 0 1 2</rect></_>
    <_>
      <rect>
        13 5 1 3</rect></_>
    <_>
      <rect>
        13 6 2 2</rect></_>
    <_>
      <rect>
        13 9 1 2</rect></_></features></cascade>
</opencv_storage>
